digraph Tree {
node [shape=box, fontname="helvetica"] ;
edge [fontname="helvetica"] ;
0 [label="x[13] <= 0.5\ngini = 0.499\nsamples = 6499\nvalue = [3365, 3134]"] ;
1 [label="x[11] <= 0.5\ngini = 0.424\nsamples = 3802\nvalue = [1160, 2642]"] ;
0 -> 1 [labeldistance=2.5, labelangle=45, headlabel="True"] ;
2 [label="x[3] <= 0.5\ngini = 0.364\nsamples = 3404\nvalue = [815, 2589]"] ;
1 -> 2 ;
3 [label="x[5] <= 0.5\ngini = 0.463\nsamples = 2090\nvalue = [762, 1328]"] ;
2 -> 3 ;
4 [label="x[12] <= 0.5\ngini = 0.492\nsamples = 1752\nvalue = [762.0, 990.0]"] ;
3 -> 4 ;
5 [label="x[14] <= 0.5\ngini = 0.5\nsamples = 1487\nvalue = [762, 725]"] ;
4 -> 5 ;
6 [label="x[4] <= 0.5\ngini = 0.495\nsamples = 1385\nvalue = [762.0, 623.0]"] ;
5 -> 6 ;
7 [label="x[7] <= 0.5\ngini = 0.496\nsamples = 1376\nvalue = [753, 623]"] ;
6 -> 7 ;
8 [label="x[2] <= 0.5\ngini = 0.487\nsamples = 605\nvalue = [351, 254]"] ;
7 -> 8 ;
9 [label="x[0] <= 0.5\ngini = 0.492\nsamples = 452\nvalue = [198, 254]"] ;
8 -> 9 ;
10 [label="gini = 0.499\nsamples = 234\nvalue = [111, 123]"] ;
9 -> 10 ;
11 [label="gini = 0.48\nsamples = 218\nvalue = [87, 131]"] ;
9 -> 11 ;
12 [label="gini = 0.0\nsamples = 153\nvalue = [153, 0]"] ;
8 -> 12 ;
13 [label="x[2] <= 0.5\ngini = 0.499\nsamples = 771\nvalue = [402, 369]"] ;
7 -> 13 ;
14 [label="x[0] <= 0.5\ngini = 0.063\nsamples = 154\nvalue = [149.0, 5.0]"] ;
13 -> 14 ;
15 [label="gini = 0.067\nsamples = 86\nvalue = [83, 3]"] ;
14 -> 15 ;
16 [label="gini = 0.057\nsamples = 68\nvalue = [66, 2]"] ;
14 -> 16 ;
17 [label="x[0] <= 0.5\ngini = 0.484\nsamples = 617\nvalue = [253, 364]"] ;
13 -> 17 ;
18 [label="gini = 0.479\nsamples = 407\nvalue = [162.0, 245.0]"] ;
17 -> 18 ;
19 [label="gini = 0.491\nsamples = 210\nvalue = [91, 119]"] ;
17 -> 19 ;
20 [label="gini = 0.0\nsamples = 9\nvalue = [9, 0]"] ;
6 -> 20 ;
21 [label="gini = 0.0\nsamples = 102\nvalue = [0, 102]"] ;
5 -> 21 ;
22 [label="gini = 0.0\nsamples = 265\nvalue = [0, 265]"] ;
4 -> 22 ;
23 [label="gini = 0.0\nsamples = 338\nvalue = [0, 338]"] ;
3 -> 23 ;
24 [label="x[10] <= 0.5\ngini = 0.077\nsamples = 1314\nvalue = [53, 1261]"] ;
2 -> 24 ;
25 [label="x[9] <= 0.5\ngini = 0.058\nsamples = 1300\nvalue = [39, 1261]"] ;
24 -> 25 ;
26 [label="x[4] <= 0.5\ngini = 0.041\nsamples = 1288\nvalue = [27.0, 1261.0]"] ;
25 -> 26 ;
27 [label="x[7] <= 0.5\ngini = 0.025\nsamples = 1266\nvalue = [16, 1250]"] ;
26 -> 27 ;
28 [label="gini = 0.0\nsamples = 889\nvalue = [0, 889]"] ;
27 -> 28 ;
29 [label="x[0] <= 0.5\ngini = 0.081\nsamples = 377\nvalue = [16, 361]"] ;
27 -> 29 ;
30 [label="gini = 0.08\nsamples = 262\nvalue = [11, 251]"] ;
29 -> 30 ;
31 [label="gini = 0.083\nsamples = 115\nvalue = [5, 110]"] ;
29 -> 31 ;
32 [label="x[0] <= 0.5\ngini = 0.5\nsamples = 22\nvalue = [11, 11]"] ;
26 -> 32 ;
33 [label="gini = 0.5\nsamples = 14\nvalue = [7, 7]"] ;
32 -> 33 ;
34 [label="gini = 0.5\nsamples = 8\nvalue = [4, 4]"] ;
32 -> 34 ;
35 [label="gini = 0.0\nsamples = 12\nvalue = [12, 0]"] ;
25 -> 35 ;
36 [label="gini = 0.0\nsamples = 14\nvalue = [14, 0]"] ;
24 -> 36 ;
37 [label="x[14] <= 0.5\ngini = 0.231\nsamples = 398\nvalue = [345, 53]"] ;
1 -> 37 ;
38 [label="gini = 0.0\nsamples = 345\nvalue = [345, 0]"] ;
37 -> 38 ;
39 [label="gini = 0.0\nsamples = 53\nvalue = [0, 53]"] ;
37 -> 39 ;
40 [label="x[2] <= 0.5\ngini = 0.298\nsamples = 2697\nvalue = [2205, 492]"] ;
0 -> 40 [labeldistance=2.5, labelangle=-45, headlabel="False"] ;
41 [label="x[11] <= 0.5\ngini = 0.127\nsamples = 2001\nvalue = [1865, 136]"] ;
40 -> 41 ;
42 [label="x[8] <= 0.5\ngini = 0.07\nsamples = 1812\nvalue = [1746, 66]"] ;
41 -> 42 ;
43 [label="x[7] <= 0.5\ngini = 0.061\nsamples = 1778\nvalue = [1722, 56]"] ;
42 -> 43 ;
44 [label="x[0] <= 0.5\ngini = 0.017\nsamples = 1175\nvalue = [1165, 10]"] ;
43 -> 44 ;
45 [label="x[3] <= 0.5\ngini = 0.034\nsamples = 586\nvalue = [576, 10]"] ;
44 -> 45 ;
46 [label="gini = 0.0\nsamples = 233\nvalue = [233, 0]"] ;
45 -> 46 ;
47 [label="x[5] <= 0.5\ngini = 0.055\nsamples = 353\nvalue = [343, 10]"] ;
45 -> 47 ;
48 [label="x[6] <= 0.5\ngini = 0.085\nsamples = 225\nvalue = [215, 10]"] ;
47 -> 48 ;
49 [label="x[12] <= 0.5\ngini = 0.156\nsamples = 117\nvalue = [107, 10]"] ;
48 -> 49 ;
50 [label="x[4] <= 0.5\ngini = 0.459\nsamples = 28\nvalue = [18, 10]"] ;
49 -> 50 ;
51 [label="gini = 0.473\nsamples = 26\nvalue = [16, 10]"] ;
50 -> 51 ;
52 [label="gini = 0.0\nsamples = 2\nvalue = [2, 0]"] ;
50 -> 52 ;
53 [label="gini = 0.0\nsamples = 89\nvalue = [89, 0]"] ;
49 -> 53 ;
54 [label="gini = 0.0\nsamples = 108\nvalue = [108, 0]"] ;
48 -> 54 ;
55 [label="gini = 0.0\nsamples = 128\nvalue = [128, 0]"] ;
47 -> 55 ;
56 [label="gini = 0.0\nsamples = 589\nvalue = [589, 0]"] ;
44 -> 56 ;
57 [label="x[3] <= 0.5\ngini = 0.141\nsamples = 603\nvalue = [557, 46]"] ;
43 -> 57 ;
58 [label="gini = 0.0\nsamples = 232\nvalue = [232, 0]"] ;
57 -> 58 ;
59 [label="x[0] <= 0.5\ngini = 0.217\nsamples = 371\nvalue = [325, 46]"] ;
57 -> 59 ;
60 [label="gini = 0.218\nsamples = 185\nvalue = [162, 23]"] ;
59 -> 60 ;
61 [label="gini = 0.217\nsamples = 186\nvalue = [163, 23]"] ;
59 -> 61 ;
62 [label="x[0] <= 0.5\ngini = 0.415\nsamples = 34\nvalue = [24, 10]"] ;
42 -> 62 ;
63 [label="gini = 0.473\nsamples = 26\nvalue = [16, 10]"] ;
62 -> 63 ;
64 [label="gini = 0.0\nsamples = 8\nvalue = [8, 0]"] ;
62 -> 64 ;
65 [label="x[3] <= 0.5\ngini = 0.466\nsamples = 189\nvalue = [119, 70]"] ;
41 -> 65 ;
66 [label="x[1] <= 0.5\ngini = 0.236\nsamples = 22\nvalue = [19, 3]"] ;
65 -> 66 ;
67 [label="gini = 0.0\nsamples = 19\nvalue = [19, 0]"] ;
66 -> 67 ;
68 [label="gini = 0.0\nsamples = 3\nvalue = [0, 3]"] ;
66 -> 68 ;
69 [label="x[0] <= 0.5\ngini = 0.48\nsamples = 167\nvalue = [100.0, 67.0]"] ;
65 -> 69 ;
70 [label="gini = 0.494\nsamples = 92\nvalue = [51, 41]"] ;
69 -> 70 ;
71 [label="gini = 0.453\nsamples = 75\nvalue = [49, 26]"] ;
69 -> 71 ;
72 [label="x[12] <= 0.5\ngini = 0.5\nsamples = 696\nvalue = [340, 356]"] ;
40 -> 72 ;
73 [label="x[6] <= 0.5\ngini = 0.471\nsamples = 574\nvalue = [218, 356]"] ;
72 -> 73 ;
74 [label="x[5] <= 0.5\ngini = 0.49\nsamples = 497\nvalue = [214, 283]"] ;
73 -> 74 ;
75 [label="x[8] <= 0.5\ngini = 0.483\nsamples = 478\nvalue = [195, 283]"] ;
74 -> 75 ;
76 [label="x[11] <= 0.5\ngini = 0.473\nsamples = 444\nvalue = [170, 274]"] ;
75 -> 76 ;
77 [label="x[4] <= 0.5\ngini = 0.374\nsamples = 185\nvalue = [46, 139]"] ;
76 -> 77 ;
78 [label="x[7] <= 0.5\ngini = 0.361\nsamples = 182\nvalue = [43, 139]"] ;
77 -> 78 ;
79 [label="x[0] <= 0.5\ngini = 0.309\nsamples = 110\nvalue = [21, 89]"] ;
78 -> 79 ;
80 [label="gini = 0.346\nsamples = 63\nvalue = [14, 49]"] ;
79 -> 80 ;
81 [label="gini = 0.254\nsamples = 47\nvalue = [7, 40]"] ;
79 -> 81 ;
82 [label="x[0] <= 0.5\ngini = 0.424\nsamples = 72\nvalue = [22, 50]"] ;
78 -> 82 ;
83 [label="gini = 0.465\nsamples = 38\nvalue = [14, 24]"] ;
82 -> 83 ;
84 [label="gini = 0.36\nsamples = 34\nvalue = [8, 26]"] ;
82 -> 84 ;
85 [label="gini = 0.0\nsamples = 3\nvalue = [3, 0]"] ;
77 -> 85 ;
86 [label="x[0] <= 0.5\ngini = 0.499\nsamples = 259\nvalue = [124, 135]"] ;
76 -> 86 ;
87 [label="gini = 0.492\nsamples = 137\nvalue = [60, 77]"] ;
86 -> 87 ;
88 [label="gini = 0.499\nsamples = 122\nvalue = [64, 58]"] ;
86 -> 88 ;
89 [label="x[0] <= 0.5\ngini = 0.389\nsamples = 34\nvalue = [25, 9]"] ;
75 -> 89 ;
90 [label="gini = 0.444\nsamples = 27\nvalue = [18, 9]"] ;
89 -> 90 ;
91 [label="gini = 0.0\nsamples = 7\nvalue = [7, 0]"] ;
89 -> 91 ;
92 [label="gini = 0.0\nsamples = 19\nvalue = [19, 0]"] ;
74 -> 92 ;
93 [label="x[0] <= 0.5\ngini = 0.098\nsamples = 77\nvalue = [4, 73]"] ;
73 -> 93 ;
94 [label="gini = 0.108\nsamples = 35\nvalue = [2, 33]"] ;
93 -> 94 ;
95 [label="gini = 0.091\nsamples = 42\nvalue = [2, 40]"] ;
93 -> 95 ;
96 [label="gini = 0.0\nsamples = 122\nvalue = [122, 0]"] ;
72 -> 96 ;
}
